2.273318326891506924e-01
9.147241932234956296e-01
5.337038164079092040e-01
-8.721207586615160601e-01
-6.314664387786673716e-01
-3.131690541627856622e-02
1.889151028501930840e+00
-1.459713080507332394e+00
-1.001003848594054918e-01
-7.653695331182785999e-01
1.188026884189383736e+00
7.086601575032522859e-01
-2.173115879799920325e-01
-9.087369139792955686e-02
-7.708802399894502111e-01
6.503281705576574590e-01
-1.570105569610928287e+00
-4.772825470863227837e-01
1.876289867731646410e-01
1.376970803257913767e+00
-2.409176706647573052e-01
3.275791283459614234e-01
-1.352805216733346638e+00
4.212411804269767801e-01
-8.621380762479667892e-01
-8.770207118939306046e-01
1.773665179605977693e+00
9.722978170541836107e-01
-1.999481874180752128e-01
7.015862116053994679e-01
-1.022516955411296058e+00
1.278255751299618215e+00
4.439552339167930350e-01
9.609921732665849259e-01
-3.898205565134262862e-01
-3.297515881033111773e-01
2.342768773783128478e-01
-1.804263734568395172e+00
-5.230454944451224525e-03
-1.229653049593253611e+00
-1.335981669949407813e+00
9.326609629297124560e-01
-5.038386565392535127e-02
3.929172708811741743e-01
7.965189678856321454e-02
8.680891454961927600e-01
1.420181671958226755e+00
1.128762472099253511e+00
-1.266664983195846972e+00
-1.768491695144442488e+00
2.155440541017805245e+00
1.493690994407104622e+00
4.281013033490521646e-02
7.343961286544845590e-01
8.508175399832061669e-02
-2.640099416837189961e-01
-3.864010548335931605e-01
2.103710186907466806e+00
-8.949063316608550298e-04
-3.243740936975870737e-01
1.942665257959323100e+00
3.815391558159561547e-01
2.519455257126044789e-01
2.132593341920718810e+00
2.767946018138074948e-01
-8.911743046243013611e-01
-9.380646841410735792e-01
5.997020862552519815e-02
2.696992970986819560e-01
-2.052094524098222461e+00
-7.786672118875024307e-01
-1.734568678618458870e+00
-6.210503837863995402e-01
-1.105678444999148802e+00
-5.457979735083776651e-01
-8.474702358499792698e-01
-1.669650439615277537e-01
-4.229663313330127017e-01
-7.199444811913999764e-01
1.532482916702105347e-01
-6.384666885611344211e-01
1.942422374505207827e+00
-1.505596957650572887e-01
1.107718573528891470e+00
-4.920901724629443419e-01
4.160056788729899480e-01
-7.654291632517398192e-01
-5.282311075441475934e-01
1.684229961329813063e+00
-8.035902839516310125e-01
9.148395088994719648e-01
-1.147927527258995939e+00
1.131426776351477370e+00
4.163589563919130043e-01
7.191235441014943719e-01
2.045255688957352547e+00
5.097881110428454932e-01
7.184850633774958473e-01
-1.294836853149061440e-01
-1.885447074064869000e+00
2.116595251601475214e-01
-7.066334378072454125e-01
-4.184772450241298070e-01
-4.813370262057992122e-01
2.319264910985388839e-01
-6.238738178379935606e-01
-9.029155770305261064e-02
-2.366560777871579979e-01
1.896673351576464217e+00
-1.706197060953293029e-02
-2.181060020630637419e-01
-5.721109679537887960e-01
1.014566240429968652e-01
3.219910200222006136e+00
1.691604705331301695e+00
5.058366885835939852e-01
1.832287136472036115e-01
7.264450492246036228e-01
-5.193230200648741440e-02
1.373806057123103941e-01
3.577399026747191124e-01
1.766531627249766923e-01
8.971716010286560072e-01
-5.748956422728055404e-01
1.743020972170433724e-01
-3.829460078026348246e-01
-5.247256656794151430e-01
-1.307295862138264653e+00
5.652554485573859644e-01
3.972893276118305006e-01
1.117581129518859129e+00
1.200224314374639528e-01
1.058294678336437533e+00
5.609793735665857817e-01
1.082000512423292732e-01
4.119331243244617746e-01
3.102866576884216188e-01
8.387036306591346690e-01
-6.319860781163472163e-02
-8.203036136020529501e-01
1.330517907478147022e+00
-1.895997996729402169e-01
-4.072699836610931823e-01
-2.924679598997871333e-01
-1.835677156245340225e+00
3.832459568064642275e-01
4.074202540221921742e-01
5.716665433458339995e-01
2.069309673305648190e+00
2.178284445416760196e-01
1.943227515409887418e-01
-2.213041556605786220e-01
7.845377330891949441e-01
5.035753837226653040e-01
-1.659259498624344520e+00
-3.432635207587090065e+00
3.767521295740101639e-01
5.453832892314655068e-01
9.979184368427305163e-01
-7.015655588112771346e-01
2.031995528236959725e+00
-1.192842397440974089e+00
-2.670212390183333007e-01
1.684207042351251404e+00
-1.013372376423895771e+00
-6.423919221508235244e-01
-1.030272754462049356e+00
7.881961232285968899e-01
6.240907911940842823e-01
-5.913912334880815358e-01
4.960029808730384571e-01
8.137084407430248412e-01
-2.197954733713581785e-02
-1.373799248674491880e+00
2.067877649231561754e-01
-4.776476907220984780e-02
1.169269823696896360e+00
8.532215381695585910e-01
7.822979366192489570e-01
2.135857136472699924e+00
-5.623933654416296557e-01
9.424173943261480169e-01
-1.174720447431479187e+00
1.544593305148766582e+00
8.698416937840042218e-01
-1.228223820901236385e+00
1.632706810536407316e-01
-1.963714326696973878e+00
-4.669863225062140244e-01
-1.168117115232851777e+00
4.568064329813086299e-01
-2.008686157929605864e-01
2.741855728899797451e-02
-2.271500620222587918e-01
1.036350602295896151e+00
1.687384523707502026e+00
1.955524867605244133e+00
8.813012356325455876e-01
-5.882881064650576086e-02
8.364352389274867239e-01
-2.542480748625882137e-01
-4.910583560566320616e-01
-9.188611517757053759e-01
3.342509843697547556e-01
-4.484297352419452931e-01
-1.659560474423374066e+00
1.185330229637878707e-01
2.404432711126514369e-02
7.290837452957130704e-01
-2.999812447036690477e-01
2.787158529293911058e-01
-6.726457398967602419e-01
2.477256707262510960e-01
2.022102728990250675e+00
-2.324203312232103080e+00
-1.178592646005604871e+00
-8.382653381325352870e-02
5.562435315948600634e-01
-3.964913473391943333e-01
1.180520516922291430e+00
-8.628479816582375062e-01
3.582694341614187095e-01
5.070995684469179615e-02
2.410212459441395116e-02
6.256234175486004023e-01
9.000049373214219495e-02
-8.059849150569563525e-01
-1.174415814282404602e+00
-5.907358569564856721e-01
-7.269309230469240823e-01
5.978496941480931914e-01
3.285189263692565032e-01
1.545194708654711035e-01
1.908056928956195275e+00
9.959949499859901412e-01
6.149772633643640907e-02
-6.171723522542141849e-01
-2.118366601819770545e-01
9.332348246108763679e-01
-1.453641892423199966e+00
-6.272082866831402148e-01
-5.133036581737697723e-01
5.559401924192653999e-01
1.684469225894793531e+00
1.037672179505990444e+00
1.656362872785844154e+00
7.872099529845436594e-01
1.299157310240604879e+00
-6.520844586645146990e-01
9.999095545249502281e-01
-1.246208518138551824e+00
2.993987605916656469e-01
1.995594554562384881e-01
4.808490943185906308e-01
-1.395752914167211367e+00
7.253465139182151411e-01
1.871315299320153447e-01
1.644796286093598292e+00
-7.590376666275358009e-01
2.156683798440672373e+00
-5.355571287258525937e-03
-2.588885420781658286e+00
-5.425912787678149884e-01
4.900867316626549286e-01
6.589796034541811620e-02
9.168892217177779802e-01
-9.246913721131315711e-01
1.727193901994781511e+00
-1.965911980204748111e-01
3.043796386205658844e-01
-8.951585130851200667e-01
-1.373268023920843073e-01
-4.625039784699150891e-01
1.384011470671553834e+00
8.761096431246165883e-01
1.671580242065519917e+00
8.826173361862669209e-01
-2.580170266728710193e-01
-1.748875360235410681e-01
-2.426164902564644343e+00
6.737135679430535928e-01
-1.715874599118871524e+00
2.018540598375122119e+00
1.519967734970073092e+00
-8.532180167237990442e-01
-2.118727308692814337e-01
-6.735882360566549654e-01
-5.288681950166621570e-01
-9.042070276725214240e-02
-6.810346880803760383e-01
7.898418259275084008e-01
1.269628378865602869e+00
8.577753704520871825e-01
-7.680391006745427296e-01
5.190977854521882512e-02
-6.312639253835595765e-01
1.155757182273347672e+00
5.245755660912986007e-02
-8.931202679781027332e-01
6.125982580780556797e-01
-6.850222660689030407e-01
4.012838488058327324e-01
1.511938804320923424e+00
2.973891999586617541e-01
2.945485383334040641e+00
-8.838407658424752844e-01
5.737703529505562283e-01
-1.015334594366755550e+00
-8.434709279286176642e-01
8.410095072811897277e-01
-9.442031069647485175e-01
3.173118337292558100e-01
-1.086839082582459204e+00
-2.363895200723365418e-03
-1.766876725854292784e-01
-6.764457702921944371e-01
-7.658519715144077589e-01
-1.128106396495923702e+00
9.662307115029551419e-01
1.567295017630203624e+00
